Language model created by QuickLM on Thu Aug 28 12:56:04 EDT 2014
Copyright (c) 1996-2010 Carnegie Mellon University and Alexander I. Rudnicky

The model is in standard ARPA format, designed by Doug Paul while he was at MITRE.

The code that was used to produce this language model is available in Open Source.
Please visit http://www.speech.cs.cmu.edu/tools/ for more information

The (fixed) discount mass is 0.5. The backoffs are computed using the ratio method.
This model based on a corpus of 8 sentences and 10 words

\data\
ngram 1=10
ngram 2=16
ngram 3=8

\1-grams:
-0.7782 </s> -0.3010
-0.7782 <s> -0.2218
-1.6812 BACK -0.2218
-1.6812 FRONT -0.2218
-1.6812 FULL+SPEED -0.2218
-1.6812 HALT -0.2218
-1.6812 LEFT -0.2218
-1.6812 LOW+SPEED -0.2218
-1.6812 RIGHT -0.2218
-1.6812 STOP -0.2218

\2-grams:
-1.2041 <s> BACK 0.0000
-1.2041 <s> FRONT 0.0000
-1.2041 <s> FULL+SPEED 0.0000
-1.2041 <s> HALT 0.0000
-1.2041 <s> LEFT 0.0000
-1.2041 <s> LOW+SPEED 0.0000
-1.2041 <s> RIGHT 0.0000
-1.2041 <s> STOP 0.0000
-0.3010 BACK </s> -0.3010
-0.3010 FRONT </s> -0.3010
-0.3010 FULL+SPEED </s> -0.3010
-0.3010 HALT </s> -0.3010
-0.3010 LEFT </s> -0.3010
-0.3010 LOW+SPEED </s> -0.3010
-0.3010 RIGHT </s> -0.3010
-0.3010 STOP </s> -0.3010

\3-grams:
-0.3010 <s> BACK </s>
-0.3010 <s> FRONT </s>
-0.3010 <s> FULL+SPEED </s>
-0.3010 <s> HALT </s>
-0.3010 <s> LEFT </s>
-0.3010 <s> LOW+SPEED </s>
-0.3010 <s> RIGHT </s>
-0.3010 <s> STOP </s>

\end\
